##
##	engram -u	-n2	-t0	../temp/temp.lm.counts	-o	-emp.lm

\data\
ngram 1=42
ngram 2=1261

\1-grams:
-1.60062	</s>	-0.00000
-5.76595	<UNK>	-0.00000
-99.99900	<s>	-1.98710
-1.64727	aa	-2.14394
-1.58283	ae	-2.97743
-0.94443	ah	-1.82046
-1.88617	ao	-2.37537
-2.42158	aw	-1.31398
-1.86441	ay	-1.21344
-1.75185	b	-2.12196
-2.40170	ch	-0.87994
-1.33900	d	-1.30013
-1.67753	dh	-1.51396
-1.54517	eh	-3.04893
-1.55539	er	-1.17553
-1.81139	ey	-1.14213
-1.74744	f	-1.72843
-2.18097	g	-1.50508
-1.86113	hh	-2.95044
-1.24086	ih	-3.24142
-1.46363	iy	-0.63952
-2.27985	jh	-0.82661
-1.40075	k	-1.88090
-1.42558	l	-1.21355
-1.51690	m	-1.12221
-1.15353	n	-1.44596
-2.07771	ng	-0.97693
-1.88336	ow	-1.25246
-2.76224	oy	-1.48274
-1.53830	p	-1.10083
-1.32909	r	-1.31001
-1.29875	s	-1.98288
-2.07146	sh	-1.32825
-1.18037	t	-1.45874
-2.42583	th	-1.24087
-2.57425	uh	-2.44170
-2.03342	uw	-0.80187
-1.78071	v	-1.25032
-1.80902	w	-3.10450
-2.13457	y	-2.82061
-1.53407	z	-1.06541
-3.24875	zh	-1.83619

\2-grams:
-0.47714	<s>	</s>
-0.47714	<s>	<s>
-2.82973	<s>	aa
-1.76996	<s>	ae
-1.77962	<s>	ah
-2.38773	<s>	ao
-4.10202	<s>	aw
-2.24188	<s>	ay
-1.58586	<s>	b
-3.50507	<s>	ch
-1.66074	<s>	d
-1.15527	<s>	dh
-2.50015	<s>	eh
-3.44460	<s>	er
-3.08289	<s>	ey
-2.08842	<s>	f
-2.77811	<s>	g
-1.64613	<s>	hh
-1.49204	<s>	ih
-2.57717	<s>	iy
-2.54756	<s>	jh
-2.00091	<s>	k
-2.24902	<s>	l
-1.64973	<s>	m
-2.13289	<s>	n
-2.85804	<s>	ow
-3.90045	<s>	oy
-2.27880	<s>	p
-2.30665	<s>	r
-1.80865	<s>	s
-2.63440	<s>	sh
-2.13289	<s>	t
-2.95608	<s>	th
-2.72118	<s>	v
-2.15841	<s>	w
-2.50662	<s>	y
-3.43650	aa	</s>
-3.87928	aa	aa
-3.67771	aa	ae
-3.67771	aa	ah
-3.67771	aa	ao
-1.68851	aa	b
-2.91225	aa	ch
-1.80759	aa	d
-2.68156	aa	dh
-2.11809	aa	f
-2.01211	aa	g
-3.12149	aa	hh
-3.16878	aa	ih
-3.54057	aa	iy
-2.58042	aa	jh
-1.31578	aa	k
-1.02492	aa	l
-0.57959	aa	m
-0.83875	aa	n
-2.33203	aa	ng
-1.37661	aa	p
-0.65301	aa	r
-1.61145	aa	s
-2.53169	aa	sh
-1.49762	aa	t
-3.87928	aa	th
-3.87928	aa	uw
-2.66558	aa	v
-2.91225	aa	w
-3.87928	aa	y
-1.27183	aa	z
-3.22186	aa	zh
-2.26021	ae	b
-2.41127	ae	ch
-1.35702	ae	d
-2.47610	ae	dh
-1.53924	ae	f
-2.06623	ae	g
-4.33162	ae	hh
-3.00529	ae	jh
-1.13829	ae	k
-1.47457	ae	l
-1.51468	ae	m
-0.45726	ae	n
-1.48425	ae	ng
-1.62010	ae	p
-2.35488	ae	r
-1.31950	ae	s
-1.56635	ae	sh
-0.83202	ae	t
-3.00529	ae	th
-1.30748	ae	v
-1.07213	ae	z
-3.74215	ae	zh
-3.22316	ah	</s>
-2.71845	ah	aa
-2.18170	ah	ae
-1.97912	ah	ah
-2.66252	ah	ao
-3.41822	ah	aw
-3.03487	ah	ay
-1.25707	ah	b
-2.18890	ah	ch
-1.01210	ah	d
-1.81750	ah	dh
-2.45536	ah	eh
-3.25821	ah	er
-2.81213	ah	ey
-1.59418	ah	f
-1.81838	ah	g
-1.84013	ah	hh
-1.99675	ah	ih
-3.23454	ah	iy
-2.02002	ah	jh
-1.39205	ah	k
-0.95712	ah	l
-1.19752	ah	m
-0.63304	ah	n
-2.53967	ah	ng
-2.80780	ah	ow
-3.92470	ah	oy
-1.43776	ah	p
-1.94233	ah	r
-1.17575	ah	s
-2.39634	ah	sh
-1.21171	ah	t
-2.53275	ah	th
-1.28153	ah	v
-2.07946	ah	w
-2.22231	ah	y
-1.69429	ah	z
-4.97002	ah	zh
-3.43881	ao	ae
-3.11371	ao	ah
-2.04497	ao	d
-4.02828	ao	dh
-3.19760	ao	eh
-1.20848	ao	f
-2.88259	ao	g
-3.19760	ao	hh
-2.92988	ao	ih
-2.04497	ao	k
-0.84841	ao	l
-2.62125	ao	m
-2.13112	ao	n
-1.44631	ao	ng
-3.11371	ao	p
-0.17827	ao	r
-1.52922	ao	s
-2.83995	ao	sh
-1.68524	ao	t
-2.70194	ao	th
-4.02828	ao	w
-2.32881	ao	y
-2.36809	ao	z
-2.66219	aw	</s>
-3.10497	aw	aa
-2.34719	aw	ae
-2.23008	aw	ah
-3.49287	aw	aw
-3.49287	aw	ay
-2.44755	aw	b
-3.49287	aw	ch
-1.58012	aw	d
-1.99733	aw	dh
-1.36660	aw	eh
-1.28175	aw	er
-2.66219	aw	f
-2.76626	aw	g
-2.50802	aw	hh
-2.11111	aw	ih
-2.90340	aw	iy
-2.03934	aw	jh
-1.81919	aw	k
-2.39448	aw	l
-1.79341	aw	m
-0.62126	aw	n
-2.57830	aw	p
-2.08585	aw	r
-1.26290	aw	s
-3.49287	aw	sh
-0.45819	aw	t
-1.69324	aw	th
-2.44755	aw	w
-0.96315	aw	z
-2.69510	ay	</s>
-2.49824	ay	aa
-2.24057	ay	ae
-1.38472	ay	ah
-2.66828	ay	ao
-2.49824	ay	aw
-4.05004	ay	ay
-2.06673	ay	b
-3.21936	ay	ch
-1.09031	ay	d
-1.61736	ay	dh
-2.48100	ay	eh
-1.42738	ay	er
-3.32342	ay	ey
-0.98789	ay	f
-2.61913	ay	g
-2.02932	ay	hh
-1.82750	ay	ih
-3.66214	ay	iy
-2.40377	ay	jh
-1.39155	ay	k
-1.42144	ay	l
-1.35591	ay	m
-0.75482	ay	n
-2.66828	ay	ow
-1.96812	ay	p
-1.44569	ay	r
-1.17926	ay	s
-2.72370	ay	sh
-1.06171	ay	t
-2.43304	ay	th
-1.09306	ay	v
-2.01753	ay	w
-2.55449	ay	y
-1.27624	ay	z
-3.43599	b	</s>
-1.46847	b	aa
-1.16535	b	ae
-0.53848	b	ah
-1.81111	b	ao
-1.46594	b	aw
-1.14083	b	ay
-2.80767	b	d
-3.57313	b	dh
-1.58891	b	eh
-1.23793	b	er
-1.62736	b	ey
-2.83626	b	hh
-0.86898	b	ih
-1.06601	b	iy
-2.53072	b	jh
-2.80767	b	k
-1.31434	b	l
-3.06420	b	m
-1.81956	b	ow
-3.06420	b	oy
-3.24803	b	p
-1.37224	b	r
-2.12432	b	s
-4.16260	b	sh
-2.97427	b	t
-2.01351	b	uh
-2.15400	b	uw
-2.70906	b	v
-2.86687	b	w
-2.15400	b	y
-2.31591	b	z
-2.18642	ch	</s>
-1.39120	ch	aa
-1.15848	ch	ae
-0.76617	ch	ah
-1.80095	ch	ao
-2.92328	ch	aw
-1.53601	ch	ay
-1.82599	ch	b
-3.12486	ch	ch
-1.94372	ch	d
-1.86649	ch	dh
-1.22742	ch	eh
-0.88861	ch	er
-1.05974	ch	ey
-1.85257	ch	f
-2.59819	ch	g
-1.81329	ch	hh
-1.13686	ch	ih
-1.36367	ch	iy
-2.92328	ch	jh
-1.71312	ch	k
-2.18642	ch	l
-1.82599	ch	m
-2.46743	ch	n
-2.13100	ch	ow
-2.59819	ch	oy
-1.66606	ch	p
-2.03771	ch	r
-1.82599	ch	s
-2.28560	ch	sh
-1.40564	ch	t
-3.12486	ch	th
-2.92328	ch	uh
-1.57761	ch	uw
-2.59819	ch	v
-1.71312	ch	w
-3.12486	ch	y
-0.86008	d	</s>
-1.46796	d	aa
-1.62827	d	ae
-0.84409	d	ah
-2.27105	d	ao
-2.11369	d	aw
-2.08643	d	ay
-1.58391	d	b
-2.68631	d	ch
-1.71839	d	d
-1.42736	d	dh
-1.52878	d	eh
-1.25048	d	er
-1.67610	d	ey
-1.65378	d	f
-2.34547	d	g
-1.62616	d	hh
-0.92899	d	ih
-1.54659	d	iy
-2.67829	d	jh
-1.63975	d	k
-1.99843	d	l
-1.67689	d	m
-2.03476	d	n
-2.13589	d	ow
-3.24911	d	oy
-1.59688	d	p
-1.65679	d	r
-1.56332	d	s
-2.74697	d	sh
-1.51059	d	t
-2.22396	d	th
-3.42976	d	uh
-1.98697	d	uw
-2.16900	d	v
-1.79537	d	w
-2.45389	d	y
-1.55249	d	z
-3.64745	dh	</s>
-3.04859	dh	aa
-0.88577	dh	ae
-0.20381	dh	ah
-4.23692	dh	ao
-2.41784	dh	aw
-3.51031	dh	ay
-3.09123	dh	b
-4.23692	dh	ch
-2.61992	dh	d
-1.85318	dh	dh
-1.28272	dh	eh
-1.27445	dh	er
-1.45064	dh	ey
-2.78338	dh	f
-3.25207	dh	g
-2.55015	dh	hh
-1.46102	dh	ih
-2.00327	dh	iy
-2.94119	dh	jh
-2.66788	dh	k
-2.85516	dh	l
-2.51311	dh	m
-2.97413	dh	n
-1.97494	dh	ow
-3.40624	dh	oy
-2.56324	dh	p
-2.78338	dh	r
-2.68512	dh	s
-2.80601	dh	t
-3.25207	dh	th
-3.32235	dh	v
-3.25207	dh	w
-3.04859	dh	y
-3.40624	dh	z
-2.48830	eh	b
-3.10648	eh	ch
-1.06093	eh	d
-2.27711	eh	dh
-1.77279	eh	f
-2.12837	eh	g
-2.12837	eh	jh
-0.98199	eh	k
-1.19106	eh	l
-1.38482	eh	m
-0.64212	eh	n
-2.69560	eh	ng
-1.69194	eh	p
-0.85947	eh	r
-0.99981	eh	s
-1.84890	eh	sh
-1.29271	eh	t
-2.70909	eh	th
-1.20629	eh	v
-1.39667	eh	z
-2.41981	eh	zh
-1.95508	er	</s>
-2.34436	er	aa
-1.81478	er	ae
-1.16253	er	ah
-2.14410	er	ao
-2.48641	er	aw
-2.61220	er	ay
-1.76099	er	b
-2.03343	er	ch
-1.05536	er	d
-1.62849	er	dh
-2.00479	er	eh
-2.57977	er	er
-1.50200	er	ey
-1.72753	er	f
-1.98053	er	g
-1.67260	er	hh
-1.37984	er	ih
-1.70057	er	iy
-1.98053	er	jh
-1.26197	er	k
-1.52618	er	l
-1.12367	er	m
-1.39048	er	n
-2.51237	er	ow
-3.21338	er	oy
-1.53548	er	p
-1.85213	er	r
-1.04581	er	s
-2.11457	er	sh
-1.31352	er	t
-2.33834	er	th
-4.35906	er	uw
-1.75006	er	v
-1.88662	er	w
-2.38232	er	y
-0.83310	er	z
-2.68538	er	zh
-2.14662	ey	</s>
-2.07641	ey	aa
-2.23041	ey	ae
-2.22209	ey	ah
-2.36758	ey	ao
-3.11822	ey	ay
-1.60600	ey	b
-2.37926	ey	ch
-1.14540	ey	d
-2.00088	ey	dh
-2.47119	ey	eh
-2.32378	ey	er
-2.95738	ey	ey
-2.00088	ey	f
-2.00088	ey	g
-1.81450	ey	hh
-1.88053	ey	ih
-3.37645	ey	iy
-1.54818	ey	jh
-1.13584	ey	k
-1.24514	ey	l
-1.35535	ey	m
-1.01254	ey	n
-4.10306	ey	ng
-3.00467	ey	ow
-1.69662	ey	p
-2.22209	ey	r
-1.19667	ey	s
-0.92735	ey	sh
-0.65723	ey	t
-2.56922	ey	th
-1.73247	ey	v
-1.91979	ey	w
-2.84027	ey	y
-1.49253	ey	z
-2.67216	ey	zh
-2.52075	f	</s>
-1.53402	f	aa
-1.62813	f	ae
-0.83440	f	ah
-0.70358	f	ao
-2.23920	f	aw
-1.11698	f	ay
-2.78525	f	b
-3.57754	f	ch
-2.90422	f	d
-1.90162	f	dh
-1.25829	f	eh
-0.93602	f	er
-1.88494	f	ey
-2.69197	f	f
-2.78525	f	g
-2.59797	f	hh
-1.06942	f	ih
-1.79642	f	iy
-3.25244	f	jh
-2.17088	f	k
-1.47543	f	l
-2.49333	f	m
-2.71348	f	n
-1.97560	f	ow
-2.32032	f	p
-1.44706	f	r
-1.91195	f	s
-3.02133	f	sh
-1.19109	f	t
-2.61522	f	th
-2.23187	f	uh
-2.58139	f	uw
-2.58139	f	w
-1.66995	f	y
-2.90281	g	</s>
-1.53014	g	aa
-1.53014	g	ae
-0.76222	g	ah
-1.91441	g	ao
-3.34559	g	aw
-2.43776	g	ay
-2.32646	g	b
-3.14402	g	ch
-2.54516	g	d
-1.12914	g	eh
-1.42599	g	er
-1.22851	g	ey
-2.58780	g	f
-3.34559	g	g
-2.58780	g	hh
-1.13384	g	ih
-2.14786	g	jh
-2.37855	g	k
-1.65679	g	l
-2.54516	g	m
-1.46810	g	n
-1.09759	g	ow
-2.21837	g	p
-0.69996	g	r
-2.35173	g	s
-3.73349	g	sh
-2.30258	g	t
-1.98663	g	uh
-3.34559	g	uw
-1.97555	g	w
-1.46471	g	y
-1.16316	g	z
-1.70462	hh	aa
-0.63553	hh	ae
-1.19452	hh	ah
-2.16418	hh	ao
-1.48299	hh	aw
-0.93045	hh	ay
-1.32158	hh	eh
-2.06355	hh	er
-2.55777	hh	ey
-1.11762	hh	ih
-1.02563	hh	iy
-1.36557	hh	ow
-4.05332	hh	oy
-2.55777	hh	uh
-1.46484	hh	uw
-0.67485	hh	w
-2.23424	hh	y
-3.29183	ih	aa
-2.53348	ih	b
-2.01510	ih	ch
-1.49871	ih	d
-1.64531	ih	dh
-1.54649	ih	f
-1.76797	ih	g
-3.02732	ih	hh
-2.08028	ih	jh
-1.05366	ih	k
-1.29512	ih	l
-1.66513	ih	m
-0.78937	ih	n
-0.94374	ih	ng
-1.74447	ih	p
-0.86632	ih	r
-1.10804	ih	s
-1.57450	ih	sh
-1.10839	ih	t
-3.34725	ih	th
-1.54930	ih	v
-4.08411	ih	w
-1.14391	ih	z
-2.45105	ih	zh
-1.91375	iy	</s>
-2.18204	iy	aa
-1.63483	iy	ae
-0.62915	iy	ah
-2.16548	iy	ao
-2.95527	iy	aw
-2.72701	iy	ay
-1.80773	iy	b
-2.09932	iy	ch
-1.34825	iy	d
-2.06967	iy	dh
-1.87881	iy	eh
-2.15268	iy	er
-1.73808	iy	ey
-1.51730	iy	f
-2.12223	iy	g
-1.51366	iy	hh
-1.49871	iy	ih
-2.73901	iy	iy
-2.33402	iy	jh
-1.26641	iy	k
-1.57418	iy	l
-1.53443	iy	m
-1.22241	iy	n
-3.86134	iy	ng
-2.16548	iy	ow
-3.62013	iy	oy
-1.33750	iy	p
-1.81637	iy	r
-1.10699	iy	s
-2.28430	iy	sh
-1.35373	iy	t
-2.02280	iy	th
-3.72420	iy	uw
-1.67386	iy	v
-1.71560	iy	w
-2.41253	iy	y
-1.15212	iy	z
-4.06292	iy	zh
-2.01760	jh	</s>
-1.46809	jh	aa
-1.25871	jh	ae
-0.59360	jh	ah
-1.82514	jh	ao
-2.64976	jh	aw
-2.37181	jh	ay
-2.00273	jh	b
-2.25284	jh	ch
-1.22816	jh	d
-2.10076	jh	dh
-1.09754	jh	eh
-0.95991	jh	er
-1.62600	jh	ey
-1.94784	jh	f
-3.04513	jh	g
-2.11949	jh	hh
-0.96257	jh	ih
-1.30309	jh	iy
-3.04513	jh	jh
-1.88775	jh	k
-1.97442	jh	l
-1.56854	jh	m
-3.04513	jh	n
-1.93514	jh	ow
-1.89912	jh	oy
-1.81553	jh	p
-2.30827	jh	r
-2.13906	jh	s
-2.90799	jh	sh
-2.30827	jh	t
-2.90799	jh	th
-1.89912	jh	uh
-1.73745	jh	uw
-2.53621	jh	w
-3.04513	jh	y
-3.24671	jh	z
-2.28743	k	</s>
-0.73427	k	aa
-1.39749	k	ae
-0.74491	k	ah
-1.40866	k	ao
-2.28372	k	aw
-2.66701	k	ay
-2.51128	k	b
-2.31429	k	ch
-2.54362	k	d
-2.30645	k	dh
-2.15119	k	eh
-1.69867	k	er
-1.79613	k	ey
-2.40171	k	f
-2.76684	k	g
-2.30645	k	hh
-1.59428	k	ih
-2.06290	k	iy
-3.10667	k	jh
-2.13780	k	k
-1.41811	k	l
-2.43700	k	m
-2.39214	k	n
-1.72538	k	ow
-3.52885	k	oy
-2.07642	k	p
-1.42521	k	r
-0.91393	k	s
-1.77049	k	sh
-1.17876	k	t
-3.06016	k	th
-2.05411	k	uh
-2.60094	k	uw
-3.15877	k	v
-1.07351	k	w
-1.73051	k	y
-2.21673	l	</s>
-1.66061	l	aa
-1.35023	l	ae
-1.03086	l	ah
-1.60235	l	ao
-2.29344	l	aw
-1.41865	l	ay
-1.77250	l	b
-2.85699	l	ch
-1.25604	l	d
-2.02711	l	dh
-1.45245	l	eh
-1.35573	l	er
-1.41546	l	ey
-1.81817	l	f
-2.41217	l	g
-1.98783	l	hh
-1.14532	l	ih
-0.96628	l	iy
-2.77706	l	jh
-1.07276	l	k
-2.20679	l	l
-1.93925	l	m
-2.29344	l	n
-1.51162	l	ow
-2.27010	l	oy
-1.63972	l	p
-1.88764	l	r
-1.44843	l	s
-2.66039	l	sh
-1.57172	l	t
-2.48027	l	th
-2.49273	l	uh
-1.91185	l	uw
-2.03585	l	v
-2.17829	l	w
-1.43716	l	y
-1.41125	l	z
-2.27599	m	</s>
-1.41180	m	aa
-1.49505	m	ae
-0.48430	m	ah
-1.52846	m	ao
-2.47720	m	aw
-1.72551	m	ay
-1.56100	m	b
-2.96664	m	ch
-1.95121	m	d
-2.01381	m	dh
-1.30906	m	eh
-1.63335	m	er
-1.36634	m	ey
-2.15664	m	f
-2.96664	m	g
-2.10898	m	hh
-0.88949	m	ih
-1.73631	m	iy
-2.94401	m	jh
-2.01640	m	k
-2.32085	m	l
-2.40778	m	m
-2.76567	m	n
-1.71238	m	ow
-2.86370	m	oy
-0.99710	m	p
-2.42746	m	r
-1.96487	m	s
-2.86370	m	sh
-2.06896	m	t
-2.68574	m	th
-3.48298	m	uh
-2.19420	m	uw
-3.48298	m	v
-2.35357	m	w
-2.12541	m	y
-1.55917	m	z
-2.11076	n	</s>
-1.83180	n	aa
-1.61327	n	ae
-1.10995	n	ah
-2.22023	n	ao
-2.32136	n	aw
-1.68173	n	ay
-1.88261	n	b
-2.09560	n	ch
-0.81030	n	d
-1.46634	n	dh
-1.85607	n	eh
-1.82813	n	er
-1.82667	n	ey
-1.70865	n	f
-2.33290	n	g
-1.70040	n	hh
-1.39387	n	ih
-1.35232	n	iy
-1.91982	n	jh
-1.46475	n	k
-1.88344	n	l
-1.90386	n	m
-2.04335	n	n
-1.93546	n	ow
-3.07415	n	oy
-1.52190	n	p
-2.01998	n	r
-1.14552	n	s
-1.98817	n	sh
-0.83679	n	t
-1.98817	n	th
-3.84634	n	uh
-1.84529	n	uw
-1.93828	n	v
-1.97362	n	w
-1.84988	n	y
-1.40367	n	z
-4.37302	n	zh
-1.58870	ng	</s>
-1.73455	ng	aa
-1.42298	ng	ae
-1.28712	ng	ah
-2.10125	ng	ao
-2.25112	ng	aw
-2.51040	ng	ay
-1.55795	ng	b
-2.69105	ng	ch
-1.53234	ng	d
-1.05770	ng	dh
-1.95576	ng	eh
-2.51040	ng	er
-2.79142	ng	ey
-1.52008	ng	f
-1.36854	ng	g
-1.43276	ng	hh
-1.21859	ng	ih
-3.83674	ng	iy
-2.57395	ng	jh
-0.72294	ng	k
-1.68765	ng	l
-1.63734	ng	m
-2.03710	ng	n
-2.40584	ng	ow
-1.25642	ng	p
-1.88030	ng	r
-1.32981	ng	s
-2.40584	ng	sh
-1.17414	ng	t
-2.32162	ng	th
-2.28494	ng	v
-1.70581	ng	w
-2.21974	ng	y
-1.35801	ng	z
-3.83674	ng	zh
-2.21201	ow	</s>
-2.34432	ow	aa
-2.26234	ow	ae
-1.88200	ow	ah
-2.53554	ow	ao
-3.20041	ow	ay
-1.65256	ow	b
-2.37090	ow	ch
-1.75230	ow	d
-2.04778	ow	dh
-2.46205	ow	eh
-1.94402	ow	er
-2.93269	ow	ey
-2.07465	ow	f
-1.94402	ow	g
-1.67681	ow	hh
-1.46076	ow	ih
-3.04624	ow	iy
-3.44162	ow	jh
-1.21034	ow	k
-0.93955	ow	l
-1.51261	ow	m
-0.98217	ow	n
-3.30448	ow	ow
-1.43619	ow	p
-2.18440	ow	r
-1.15031	ow	s
-1.71142	ow	sh
-0.66729	ow	t
-1.67131	ow	th
-1.25941	ow	v
-2.11833	ow	w
-2.60018	ow	y
-1.15947	ow	z
-2.42949	ow	zh
-2.76432	oy	</s>
-2.76432	oy	ae
-1.77046	oy	ah
-2.00653	oy	b
-2.56275	oy	ch
-1.32374	oy	d
-1.88943	oy	er
-2.56275	oy	ey
-2.42561	oy	f
-3.15222	oy	g
-3.15222	oy	hh
-2.32154	oy	ih
-1.22441	oy	iy
-2.23765	oy	k
-0.90065	oy	l
-1.72131	oy	m
-0.20717	oy	n
-2.42561	oy	p
-1.72131	oy	s
-1.69868	oy	t
-2.76432	oy	v
-3.15222	oy	y
-1.96389	oy	z
-2.59687	p	</s>
-1.34906	p	aa
-1.62510	p	ae
-1.01589	p	ah
-1.58580	p	ao
-2.22264	p	aw
-2.10401	p	ay
-2.71597	p	b
-3.54547	p	ch
-2.80711	p	d
-2.64067	p	dh
-1.28208	p	eh
-0.99716	p	er
-1.59711	p	ey
-2.58657	p	f
-3.23047	p	g
-2.39285	p	hh
-0.62290	p	ih
-1.50792	p	iy
-3.04982	p	jh
-2.58657	p	k
-1.28259	p	l
-2.33217	p	m
-3.98826	p	n
-1.67200	p	ow
-1.45224	p	oy
-2.39285	p	p
-0.86442	p	r
-1.65739	p	s
-2.24988	p	sh
-1.61738	p	t
-3.46158	p	th
-2.14251	p	uh
-2.96913	p	uw
-3.78668	p	v
-2.49518	p	w
-2.00824	p	y
-4.37615	p	z
-2.27173	r	</s>
-1.51408	r	aa
-1.41301	r	ae
-0.98027	r	ah
-2.02527	r	ao
-2.54708	r	aw
-1.46155	r	ay
-2.03398	r	b
-2.60206	r	ch
-1.56839	r	d
-1.66144	r	dh
-1.27732	r	eh
-2.58922	r	er
-1.39203	r	ey
-2.11716	r	f
-2.18386	r	g
-1.89890	r	hh
-1.10626	r	ih
-0.62482	r	iy
-2.03398	r	jh
-1.44947	r	k
-2.07070	r	l
-1.68365	r	m
-2.01503	r	n
-1.49433	r	ow
-2.95348	r	oy
-1.60417	r	p
-2.40209	r	r
-1.70293	r	s
-2.60862	r	sh
-1.25100	r	t
-2.30003	r	th
-3.60051	r	uh
-1.65331	r	uw
-2.73867	r	v
-2.29358	r	w
-2.65755	r	y
-1.85246	r	z
-1.92667	s	</s>
-1.94500	s	aa
-1.67422	s	ae
-0.94731	s	ah
-2.07141	s	ao
-2.65925	s	aw
-1.84827	s	ay
-2.07321	s	b
-2.12063	s	ch
-2.08229	s	d
-1.93968	s	dh
-0.90947	s	eh
-1.69553	s	er
-1.72756	s	ey
-1.87136	s	f
-2.57742	s	g
-1.91653	s	hh
-1.05720	s	ih
-1.44630	s	iy
-2.71854	s	jh
-1.35175	s	k
-1.84190	s	l
-1.62352	s	m
-2.38205	s	n
-1.59632	s	ow
-3.31997	s	oy
-1.16009	s	p
-2.14325	s	r
-1.81929	s	s
-2.86884	s	sh
-0.64058	s	t
-2.90389	s	th
-4.22780	s	uh
-2.11268	s	uw
-2.88021	s	v
-1.84190	s	w
-2.15178	s	y
-2.34745	sh	</s>
-1.73101	sh	aa
-2.25737	sh	ae
-0.22322	sh	ah
-1.72143	sh	ao
-3.45509	sh	aw
-3.01231	sh	ay
-2.58020	sh	b
-2.65466	sh	d
-2.46123	sh	dh
-1.12184	sh	eh
-2.00531	sh	er
-2.48806	sh	ey
-2.38945	sh	f
-2.92842	sh	g
-2.34745	sh	hh
-1.30593	sh	ih
-1.33998	sh	iy
-2.36794	sh	k
-2.51665	sh	l
-2.18280	sh	m
-2.79767	sh	n
-1.76630	sh	ow
-3.45509	sh	oy
-2.24140	sh	p
-2.32787	sh	r
-2.38945	sh	s
-3.84299	sh	sh
-1.87291	sh	t
-3.25352	sh	th
-1.39219	sh	uh
-1.40116	sh	uw
-3.45509	sh	v
-2.19673	sh	w
-3.45509	sh	y
-1.75028	t	</s>
-1.70229	t	aa
-1.56341	t	ae
-0.73583	t	ah
-1.96239	t	ao
-2.63189	t	aw
-1.87964	t	ay
-1.77919	t	b
-3.08781	t	ch
-1.93468	t	d
-1.46034	t	dh
-1.54075	t	eh
-1.12189	t	er
-1.65385	t	ey
-1.74898	t	f
-2.46194	t	g
-1.59091	t	hh
-1.04752	t	ih
-1.18098	t	iy
-2.51155	t	jh
-1.66120	t	k
-1.79260	t	l
-1.78761	t	m
-2.13443	t	n
-2.03742	t	ow
-3.18228	t	oy
-1.58643	t	p
-1.19289	t	r
-1.08088	t	s
-2.55910	t	sh
-1.65385	t	t
-2.27232	t	th
-3.13248	t	uh
-1.74510	t	uw
-2.65216	t	v
-1.53875	t	w
-2.39389	t	y
-3.90340	t	z
-1.66015	th	</s>
-2.22583	th	aa
-1.64193	th	ae
-1.48002	th	ah
-1.58360	th	ao
-1.02256	th	aw
-2.65794	th	ay
-2.30030	th	b
-2.16229	th	d
-1.93682	th	dh
-2.50377	th	eh
-0.82876	th	er
-2.65794	th	ey
-2.50377	th	f
-2.39022	th	g
-1.91958	th	hh
-1.00781	th	ih
-1.73068	th	iy
-1.34852	th	k
-1.97350	th	l
-2.26147	th	m
-2.13369	th	n
-2.57405	th	ow
-1.56827	th	p
-0.56396	th	r
-1.11272	th	s
-3.10072	th	sh
-2.16229	th	t
-3.10072	th	th
-1.74176	th	w
-3.10072	th	y
-3.34021	uh	ch
-0.33360	uh	d
-2.75074	uh	g
-1.09217	uh	k
-1.20928	uh	l
-1.98528	uh	m
-2.95231	uh	n
-2.95231	uh	p
-0.55599	uh	r
-1.29623	uh	sh
-1.31949	uh	t
-2.08140	uw	</s>
-2.23477	uw	aa
-2.24916	uw	ae
-1.39202	uw	ah
-2.32924	uw	ao
-2.34719	uw	aw
-2.61824	uw	ay
-1.84853	uw	b
-1.89127	uw	ch
-1.14352	uw	d
-1.84853	uw	dh
-1.20370	uw	eh
-2.29541	uw	er
-2.15723	uw	ey
-1.83143	uw	f
-2.61824	uw	g
-1.54372	uw	hh
-1.51044	uw	ih
-2.73535	uw	iy
-2.08140	uw	jh
-1.48203	uw	k
-1.37022	uw	l
-1.25688	uw	m
-1.10618	uw	n
-3.88103	uw	ng
-2.55470	uw	ow
-1.19072	uw	p
-1.91772	uw	r
-1.15988	uw	s
-1.62947	uw	sh
-1.12886	uw	t
-1.97601	uw	th
-1.33675	uw	v
-1.86032	uw	w
-1.49471	uw	y
-1.06793	uw	z
-2.10175	uw	zh
-2.39825	v	</s>
-1.80810	v	aa
-1.49351	v	ae
-0.82972	v	ah
-2.13760	v	ao
-2.98805	v	aw
-1.54850	v	ay
-1.62486	v	b
-2.70283	v	ch
-1.43834	v	d
-1.01753	v	dh
-1.21508	v	eh
-0.91280	v	er
-1.86496	v	ey
-1.89644	v	f
-2.22871	v	g
-1.58060	v	hh
-1.14799	v	ih
-1.57364	v	iy
-2.36499	v	jh
-1.62486	v	k
-1.71998	v	l
-1.59667	v	m
-1.87176	v	n
-2.00746	v	ow
-2.33410	v	oy
-1.43332	v	p
-1.74230	v	r
-1.47662	v	s
-2.63819	v	sh
-1.71517	v	t
-2.38688	v	th
-2.51673	v	v
-2.17729	v	w
-1.74741	v	y
-1.63867	v	z
-0.99892	w	aa
-2.91710	w	ae
-0.71891	w	ah
-1.57942	w	ao
-4.10543	w	aw
-1.33163	w	ay
-0.92349	w	eh
-1.08846	w	er
-1.52019	w	ey
-0.84012	w	ih
-1.20846	w	iy
-0.81855	w	ow
-1.35772	w	uh
-3.06011	w	uw
-2.48416	y	aa
-3.39198	y	ae
-0.55444	y	ah
-1.50774	y	ao
-3.77988	y	aw
-1.47238	y	eh
-1.14982	y	er
-3.39198	y	ey
-1.06112	y	ih
-2.08041	y	iy
-2.86531	y	ow
-1.27100	y	uh
-0.36642	y	uw
-1.34918	z	</s>
-1.51045	z	aa
-1.29755	z	ae
-0.86176	z	ah
-1.92079	z	ao
-2.65657	z	aw
-2.35966	z	ay
-1.45871	z	b
-2.38424	z	ch
-1.33937	z	d
-1.31823	z	dh
-1.66161	z	eh
-1.95236	z	er
-2.37178	z	ey
-1.41996	z	f
-2.15040	z	g
-1.37749	z	hh
-1.07761	z	ih
-2.13589	z	iy
-2.30368	z	jh
-1.17673	z	k
-1.77447	z	l
-1.57017	z	m
-1.59308	z	n
-2.18897	z	ow
-3.39553	z	oy
-1.19556	z	p
-1.67499	z	r
-1.35505	z	s
-2.50772	z	sh
-1.36340	z	t
-2.25411	z	th
-3.99248	z	uh
-3.54970	z	uw
-2.51620	z	v
-1.48901	z	w
-2.37178	z	y
-3.54970	z	z
-3.65377	z	zh
-2.66573	zh	</s>
-1.93912	zh	aa
-0.16272	zh	ah
-2.66573	zh	aw
-2.66573	zh	d
-0.58382	zh	er
-2.66573	zh	ey
-1.93912	zh	ih
-2.27783	zh	p
-2.27783	zh	th

\end\
